{"W0": [[-0.3652754569299269, -0.24851612217406252, -0.28268026451387435, -0.30141355070267944], [0.4504570621456932, 0.10071527202131413, -0.33083566413985954, 0.007225133002122663], [-0.12650420527301567, 0.6653091056814789, -0.46996600050622706, 0.1433644804010795], [0.8069719914176348, 0.012995571412926956, -0.6443949621373883, 0.42991010208896474], [0.5915335367802327, -0.07733498167997215, 0.1039534630576183, 0.11427876768538575], [0.030491083205781505, 0.6426520230822498, 0.7888204309625697, -0.12277650429593281], [-0.5448398862783378, -0.49936906687980753, 0.017252076748995687, -0.19176888931700212], [0.520287105052515, -0.1418758583866906, 0.25717322526740305, 0.06911357896302683], [0.27627755584735847, 0.26634240035126044, -0.05803288394895, 0.2403075964569547], [-0.0014616910831378902, 0.22021932665648838, 0.3133675113400357, -0.21456470179438794], [-0.018993221675162663, 0.05915477489823418, 0.19116512360547125, -0.5308339216146538], [0.4148956356323353, 0.436256963900671, -0.2549894448961665, -0.5393934814744072], [-0.014021749391482763, -0.736501683627485, -0.018767911008549448, 0.06362137545350573], [0.10338777393991141, 0.3098955230335329, 0.08090044462055446, -0.2964951395694891], [-0.3509287901760956, 0.4941836299133615, 0.18327464587315956, -0.09760266116138841], [-0.13536269746210167, -0.6926942752417493, 0.13174411892415566, -0.37945540741659306]], "W1": [[-0.17562715241770693, -0.10746104095923421, 0.24736831600262094, -1.1372402265488626, -0.5523676898130697, -0.23129529292503023, -0.6462171817573101, -0.33712699441467386, -0.42101199975315384, 0.2127568859308425, 0.3726563666051773, 0.028755701476757396, 0.2777761508646795, -0.2697008248675792, 0.34541274291501356, 0.6417803627827122], [-0.4296723982313853, 0.2557078665705524, -0.6176741500544488, -0.46020828836812006, 0.39745698728163736, -0.21586007084603637, 0.0373084132702013, -0.5569684680643218, -0.19982477988498, -0.2630931966489027, -0.43539160673864563, 0.6616390093447422, -0.9702859376563232, 0.26908877076828697, -0.38263927057354696, -0.6919411026870166], [-0.14176769455526803, 1.518665092606018, -0.05871292896504024, 0.505749776479519, 0.4183280928717632, -0.16950218830022112, -0.78617197686407, 0.022203462041125114, -0.5141619973734081, -0.7910246778028648, -0.5362545351238023, -0.2533700334274971, -0.429997826259145, -0.48967731698447214, -0.14759293175104932, -0.32035327936392216]], "b0": [[0.7669234187633361], [-0.04418775090688128], [0.4728399414706998], [0.025574053727578525], [1.2991945745479208], [-1.3168036267966285], [0.4433945327867842], [0.8201976899595924], [-0.687383178870224], [-0.24844748211401627], [-0.16915358999159344], [-0.7749684209375548], [0.40937289591043335], [0.6821373506700609], [-0.15356861428248098], [-0.6927341903517249]], "b1": [[0.020421704731807405], [-0.01253920705367943], [-0.8273117557592933]]}