{"W0": [[0.2727337959501284, -0.14749726291817628, -0.14271626306778087, -0.8769461334020892], [2.519867825597849, 0.22756588458595928, 0.3877958874820046, -1.062118557718693], [0.6915741644990052, 0.33646859032062276, -0.598109785433613, 0.4771008886485278], [-2.693932876803442, 1.7463902539049043, 0.8114754479518378, 0.670618737253234], [-0.15374576589579864, 0.3224279822668792, -0.780992113346984, -0.4377930146147262], [-0.24927551671970086, 0.48681742361874075, -0.4404092241320505, -0.2140514598667401], [-0.2600408133048484, -3.9449905709915356, 0.5627515501832281, 1.1870979890854132], [-0.09801262113313555, -0.42626350312893624, -0.4103651014738136, -0.3979448478200429], [-0.128748733172523, -0.726095803982824, -0.0530637776633825, -0.6419682304034298], [-0.7820731720792007, -0.45102392075786113, -0.5976141331297659, 1.3270537631518848], [-0.20240217366987817, -0.012122961397359255, -0.1998881649334161, -0.3263094158947439], [-0.21234375010375026, 1.103814413785653, -0.3059947855009494, -0.8304600252511602], [0.05191456865145255, 0.3101276854845673, -0.4210524665751326, -0.757852306460304], [-0.8778570883636734, 1.2509263478034494, 0.20860782395452188, 0.8532840108304258], [-0.148508603428588, 0.4002707751641892, -0.18110922724489525, -0.7390660607749218], [-0.5332567790079273, -0.7520070479526201, -0.30870278198968626, 0.009155740919094832]], "W1": [[0.025461101829357593, -0.7791779483490064, -0.06629083817874883, 1.940037174083541, 0.14291234356368626, -1.5088869137965313, -2.8653567889823, 0.40649351797585553, -0.3536630013059943, -0.24289439054280224, -0.4024502352763642, -0.12272783951547098, -0.25940157458346996, 1.5384699836251532, -0.0019142940487616926, -0.3745159872561274], [0.7228673523462398, 2.236116428648596, 0.32129414001611517, -2.142217472500855, -0.20246312187999327, 0.0722094248954609, -1.2543618347011443, 0.8698037644017012, 0.5756861234232565, 0.10415141920407112, -0.49459873963914935, -0.26379086323799067, 0.2501078662559243, -0.9957344841263738, 0.5686236402298465, -0.17014308003637366], [-0.6680842625248837, -1.0584237727775856, 0.15517172570642818, -0.5707731945081114, 0.6847303294879464, -0.41780654409039364, 2.7597328345183727, 0.15888348220091394, 0.17900643330639476, 0.2085154392937147, 0.035048424291301415, -0.14028144455491476, 0.42642821388201224, -0.5716481434260976, 0.6740232509769585, 0.28144778475647614]], "b0": [[-0.6242381006562143], [-0.06618625938818755], [0.006923931665109735], [-0.05962278201069625], [-0.228218224137618], [0.5266499451032858], [-0.7335349436251143], [0.37003453609196924], [-0.29826663815116267], [-0.8727172693961417], [0.23702715244023959], [-0.09922130025518487], [1.0002856417818446], [0.9172889019985092], [-0.534633040230843], [-0.057162585036736775]], "b1": [[-0.1551805247489333], [-0.16098487695104857], [-0.021196782270054344]]}