{"W0": [[-0.023739522579300495, 0.2729149984302855, -0.20829914304845018, -0.757921780489548], [0.35375184295273315, 0.6892319895766088, -0.40110097801464795, -0.7814289791393886], [0.4980047313774331, -0.6692138931524735, -0.3566348072994758, 0.09943635663977198], [0.590006250553973, -0.07708355776113551, 0.0850429358352374, -0.092074546796393], [-0.5967160726292201, 0.9507843200912804, -1.0049765502594148, 0.3877873079630661], [1.2626744211435426, 0.39442519935936404, 0.039976759051226524, -0.572296337788143], [1.152668410657279, 0.35233183696509635, -0.008587437303046501, -0.17334256634117512], [0.43968072215590426, 1.5230575374255637, 0.11526377541816224, -0.8448566590094788], [0.12820490574390764, 0.21337810416705277, 0.0051935021056678495, -0.7240304126463993], [-2.3699700333301132, 1.1719120644905499, 0.6151068760990729, 0.36577901747310215], [0.32170241700826646, -2.4731772859998054, 0.6619829342787009, 0.7609373683217716], [-0.89446126039209, 2.3620549359832492, 0.24780839904587743, 0.04267915336437008], [1.503361798777078, -0.15490413864427713, 0.2048943429649515, -1.0739551028086125], [-0.224893776340097, 0.4404856432986706, -0.5592720536473376, -0.5667228621776189], [-0.42627321972017607, 0.37630804312729443, 0.2843164738543201, 0.9966841503704138], [0.3519862345264994, 0.8308016771889712, 0.078995346208964, -0.4262076215995568]], "W1": [[0.3849307578430557, 0.2881542258864901, -0.09534851847531646, 0.03606082551490509, 0.31349411873709127, -0.8145492110525192, -0.3378163869776199, 0.7860475923196665, -0.5019061316869384, 1.0256991154844728, -1.4233015247864913, 2.005331876941718, -1.2915515616699211, 0.0855254727352747, 0.05841424112461281, 0.3479012639708393], [1.1316048121571676, -0.9495205641596641, -0.7425298879789382, 0.4876359073158669, 0.729444975355927, 0.6020528528789649, 0.7225392564055739, 1.0344186993439188, -0.16867456604146397, -2.2969861745318636, -0.7731248359094873, -0.12797635813724048, 1.1165814375107368, -0.4022576052511966, -1.195749770883486, 0.25480348139591524], [0.7859220692072514, 0.20429329699321944, 0.29368474025101404, -0.01817423051535492, 0.2948533751457736, -1.2152502548743043, -0.7634900852647081, -1.1815784218350986, -1.0078069437166726, -0.5649631964943865, 1.779652752600352, -1.1941505425183683, -0.844033178952284, 0.07554294572720144, -0.28539741546863956, -1.3406034785004517]], "b0": [[0.23920945142253133], [0.5775597969688298], [-0.7280201641330282], [0.61539235780294], [0.2146170828594666], [0.08260586678447437], [0.20130156948950848], [0.3820130058332079], [0.06207882859844277], [0.25695216436625806], [-0.2856399201406549], [0.5487156687868038], [0.036190477603165475], [0.09852528955763096], [-0.8034380556997612], [0.07314164431147795]], "b1": [[0.3673660080718805], [0.6761580114841995], [0.24134460278500355]]}