{"W0": [[0.45706787117275116, 0.4012891174598897, -0.021695751555939814, 0.264932322269976], [0.2699028407833533, 0.4539394489309012, -0.38200667100456587, -0.006234514265354352], [0.5961933700550825, 0.22972911672850319, 0.23837905652689087, -1.2208308092029059], [0.6713529000844142, -0.5461877987741952, -0.4823103453492509, -0.40970371474305467], [-1.5203638087833609, -0.33559522458647556, -0.2765732989964627, -0.0724122620649031], [-0.3902789046292902, -0.5630155468877928, 0.0567459762818505, 1.2758611091468361], [0.47035206405434316, 0.2208918571681849, -0.05268429818784115, 0.21891474392805066], [-0.5616705175023903, -0.2691904640619829, 0.3173702594127457, 0.008148403685544026], [-0.28059716922286804, -0.029157332007977196, -0.22342436163436427, -0.536131157178708], [1.2444182596726654, -0.27558818570183885, -0.22623562832416436, 0.6873141685462795], [-0.009553779080654143, 0.5547997840518382, 0.28374760436752355, -0.979596050851093], [-0.20911070916670255, 0.010315179692273175, -0.3685339187303819, -0.16907857381108843], [-0.08405602535861165, 0.5892481319664585, 0.3924949471451039, 0.21150082618475108], [0.12562739763684933, -0.209124260448487, -0.028720592486897328, -0.16539872979794926], [-0.07251012258809379, -0.38576611374214664, -0.31731673889930617, -0.2613246748114457], [0.10375362823136207, 0.383585080183273, -0.3464725659241588, 0.15288216415853761]], "W1": [[-0.14659456570547424, -0.12194331689359227, -0.19103136877392873, -0.5347143922402887, -0.3539621211331418, 0.0030835854802007644, -0.3737600333767022, 0.004496543708132962, -0.3629757721176628, -0.9741486608625681, 0.27051273077972426, -0.05394698785936319, 0.7193877656589972, -0.4345100384201124, 0.4554556594703578, -0.7186279536353722], [0.039373507252867215, -0.21181931802948087, 1.1672234007864501, -0.5474035163327524, 0.2098983296679627, -0.27441113413129337, -0.30530915324281516, -0.36125350382114624, 0.712668022482217, 0.1013135382715871, -0.40214448262818153, 0.027284132268135378, -0.07545683292157074, -0.2180271426122191, 0.6166374276319364, 0.5854646545587848], [0.30009012295295356, 0.1734515572170206, -1.0235712980791507, -0.006526480885859637, -0.2897275704966588, 0.8391547729101301, -0.1798092288853164, 0.15605747630027894, -0.5741272926867911, 0.162083653136126, -0.44475526440005586, -0.1267324165270703, 0.01412934820186964, -0.6390933113033114, 0.6243713694934543, 0.18092372069822119]], "b0": [[-0.6164272604894675], [-0.6552821298392358], [-0.046922741056495645], [-0.9510096351335396], [-0.4231311367091402], [0.15520810170070734], [0.9701874967155898], [0.19936404890943754], [-0.18959609761527765], [-0.23570098981506105], [-0.2602907105972309], [0.14695388646833837], [-0.5300442538621796], [1.2570168986072487], [-0.4645150194704959], [0.4859533553327479]], "b1": [[-0.36032313151866346], [0.5030733842922748], [-0.5302578424438131]]}